function [y1] = feed_forward_nn(x1)
%MYNEURALNETWORKFUNCTION neural network simulation function.
%
% Auto-generated by MATLAB, 08-Mar-2020 16:16:45.
%
% [y1] = myNeuralNetworkFunction(x1) takes these arguments:
%   x = Qx10 matrix, input #1
% and returns:
%   y = Qx1 matrix, output #1
% where Q is the number of samples.

%#ok<*RPMT0>

% ===== NEURAL NETWORK CONSTANTS =====

% Input 1
x1_step1.xoffset = [0;0;0;0;0;0;0;0;1;1];
x1_step1.gain = [0.000442282176028306;0.0110497237569061;0.0102564102564103;0.0363636363636364;0.00843881856540084;0.00465116279069767;0.0298507462686567;2;0.333333333333333;0.0666666666666667];
x1_step1.ymin = -1;

% Layer 1
b1 = [0.14494726630361945419;-0.6249082723114535165;0.56452747454555129991;0.32308348804486264338;-0.14162977775354460008;-0.87585243533751855338;-0.72466022378515571045;-0.073048288299073407814;-0.14478904235879846985;0.25690423585433019849;-0.28492204959706440848;0.46308254514656194134;0.0010356354969152728462;0.19982592541960769728;-0.00051745508435788927035;-0.36271292568846497106;-1.0918638706232426383;0.084088009480682665564;-0.024585159282314607981;0.10119510703539739971;0.22765658920965781142;-0.097315322872892809358;0.01752952608582494104;-0.61557269956883930995;0.16737297980895687877;0.23784518408126731348;0.041534975811554172842;-0.16376077428819207915;0.31640597985910856593;-0.35234177550541251334;0.046815264738932965694;0.00083337788628518375249;-0.00037159962626463619636;0.019375202892420593376;-0.21831341543027210639;0.16507003854332463755;-0.4963840581777998473;0.10826764917933807963;0.00035964401682894264582;0.11929002454390891241];
IW1_1 = [-0.25500654216389245788 -0.32648840676975127151 0.078902393166426193494 0.78015686613191426169 1.5402008658536858743e-05 -0.27827468559667850601 0.38084996190899961244 0.26227485402590849928 -0.29089595697087833326 -0.17845947525100727682;0.045785782745007143346 -1.2223595731172802736 0.91402102050725220206 -0.017073841082200263281 0.070548321889496112824 -0.37869092788470315458 -0.75828547894502629223 -0.23706874875917360868 -0.10778315251645947948 0.13760824732426729655;0.073220606671376475827 1.019742417353728392 -0.28470236462015247048 0.33250595188841697292 -0.098613567568551954712 0.052038089855399705108 -0.64904092362935938976 -1.0356746946461123926 -0.60668528829171042283 -0.3769107317694561643;-0.10209250080784390557 -0.25344617591866475115 -0.23392496573506613156 0.6494760397065580948 -0.36797486146015395692 -0.40394204886678924948 0.56807368538748814757 -0.15164720974258719122 0.5239337408525200912 -0.16870882226755998246;-0.29373231004402705624 0.23733304604684385408 -0.1106230227607978428 -0.35284807681368596244 0.14678830314617324904 0.31180646728391747668 -0.9042891197743463394 -0.099724062002908994695 0.21251000679745174482 -0.32819787712151909931;0.026857916600902812659 0.056778197269720748208 -1.1662962013039255282 0.024463729138645487482 -0.042318005916471661265 -0.4284803987537130765 0.76830390332546716348 0.26168567412486160029 0.16819884713963750844 -0.0089236562637676868082;-0.046493553119973107801 -0.15985150962032751432 -0.95399517556293433884 0.41174238396483409108 -0.48082398670982035016 -0.63198648524257694525 0.84443140030783303551 0.27997873452372618042 0.088617042053166630855 -0.31933325628246617134;-0.90827717353215253748 -0.4242646454551765034 0.015814737262539554918 0.059334180106419262546 0.60996202803413002158 0.67844502527358863109 -0.50432121482234260057 0.21792836139371232762 0.23282080988526671073 0.18277651864141203353;0.51433701493530448179 0.026368583220758599894 -0.25711774550068150491 0.081008357003486700099 -0.047024212624393206539 0.33024079557786678585 0.63410936545846507961 -0.31842470058216593154 -0.54537881436835999871 0.0094733479175520812071;-0.104402462708348992 0.52572202856699445928 -0.98735687744853617431 -0.65455148389014083943 0.36163376736225272268 0.16111769983666665573 0.42388278652793159873 0.25065959124052511475 0.22559722771746612557 -0.14969092478019979664;0.19323706098471363224 0.26431096295295158916 -0.2965806435155582399 0.30737883240525426531 -0.44151704433204363998 -0.027846976073291215825 -1.0106145829631929534 -0.39393448644694056826 0.22077575095782192571 0.078776227381018873452;-0.42244177859890313931 -0.46020791957291312668 0.25975068860386341107 0.029082235303753863759 -0.068866294554546125806 0.1254964693638213058 -0.52797070912318522229 -0.42956647244764734062 0.04733702951089942268 0.15582651350369569609;0.063410777374030780074 0.078019058650162453894 -0.050243598501879697948 -0.027616110733926585441 0.017651356639133038151 -0.065159766768726493091 -0.065956791123052749271 -0.042003896718408054167 0.055984977096857492518 -0.029284303244297399393;0.20773124690684385829 -0.6137364487755251341 -0.081995881753692004268 -0.34215989475064773062 0.069972129541502364747 -0.13824371286132045022 -0.59419021842203889605 -0.38960081526523032691 -0.30329661473389524229 -0.031920338014701545026;0.06525183103904973192 0.080292272674392567433 -0.050640029558294136214 -0.028153463164410180014 0.021628174389545690853 -0.07010170008925452334 -0.068039009388798310507 -0.044276157859054844634 0.05617276327067242947 -0.028483510348602844586;0.039989846070023399305 0.12334317277393982981 -0.40314580121151238901 -0.069515204551759024465 0.01036152951647381637 -0.49619373236663005811 0.41117590797416486703 0.15168640996723325998 0.051756328291337812264 -0.55896852547606357131;-0.25819425177092691914 0.13187568468631499785 0.25729454275472157798 0.55902814593733984871 1.2767111349197270975 -0.3841166868654493638 -0.34030074553826622497 -0.17306658517912026918 0.28800186841910596636 -0.049796255379687952292;0.052909480160494661016 0.4035991266621174467 0.67802654575597909314 -0.25591032963947762946 0.64602283844333896479 -0.26749046867686837592 0.49187363653111892958 -0.301295362083167928 -0.23136870206136173067 0.22237694582155137502;0.24994996240788472375 0.1990450267717790156 -0.4835747032355561803 -0.027692808451144870774 -0.15764598328870421673 -0.14754895304915510712 -0.91277583478947121876 -0.59660963064392980026 -0.69297215169625259179 -0.34240086012530540627;0.082650930895193749914 0.2827296533816027746 -0.48927459283429636239 0.75550871150497234119 -0.085558701781924553775 0.10277834421189285807 -0.55488506595118225473 1.0583489617191472743 -0.16113347918165121797 0.300238007400462803;0.12417674028057168467 0.19073594500664076135 -0.04573362725351812208 0.31478820694123971213 0.45969886218197075767 -0.90448501421392968336 0.56998636923948342581 0.0094309069456249457197 -0.17770754384248493851 -0.13094925189359626905;-1.0214379217301654545 -0.29471328809577485019 0.16527837451593080376 -0.073304095815149072912 -0.30409159467881130556 0.2141193347673439884 0.47616634860431378273 -0.13491976138364261684 0.069810237839677297123 -0.019878051023164047817;-0.33402974611190461296 -0.40023607524929266654 0.8154451846900897527 -0.68129897804573136266 -0.29790576558098291748 -0.36038039843790548034 0.076541454074813317088 -0.055310706888051640318 -0.027500297170802170954 0.05463663063835647038;0.15825199497189507136 -0.15715536790351453122 -0.067838515974821753107 -0.68461006619478048663 -0.51435652127016151525 0.16093941745848067137 0.62559147641701495779 -0.2073055906213342181 -0.3191554767403134707 0.32431489185257866836;0.55811740175556412424 0.85133422700715866149 0.44821294470458572512 0.28721511748386396867 -0.36164292887316368263 -0.35793819574692292695 -0.63223877834027975009 -0.013674884054071308193 0.021500142712388113642 0.21185567848477362962;-0.37734264227753849807 0.33870686367106700443 -0.037740765442754946324 -0.019013248387267232126 0.18334970700192645965 0.27769013088474042705 0.28630466238204721474 0.14361161862157842406 0.39179980859497703927 -0.30531681331481652641;-0.40770969959102076885 0.30966426562106158515 0.5140081535360612186 -0.22428351905356627705 0.37583591780949110461 0.11807186684780866803 -0.56143412513087753712 -0.62224160066257250268 -0.031519734623905934501 -0.27928281033049817683;0.70301152652078802152 0.61482698797922641365 -0.6073078806032926602 0.051988941714038124087 -0.47826881004623494897 0.46861364087797069411 0.79703403289326779646 -0.10780608639740839327 -0.7628143299050406112 0.17414143693695002812;0.18097165205156023893 0.12578609289306996732 1.3506644472603366314 0.33669363356315740177 -0.64927520049379461309 -0.28690654676855792404 -0.29925804421224649898 -0.029262068445352725637 -0.045040745566532924826 0.033859605654037512601;-0.16682874884484921729 0.27116640204183029006 -0.46678745754543199409 -0.77661088521438303989 0.057533873578105514113 -0.48910906210787341575 0.56694699353085564741 0.38546273619992188486 0.43557426284569811248 -0.36528757186358185027;0.18537790576443100021 0.11702198545011255337 0.34659133347604664799 -0.23946188278414429207 0.59838745146956151544 0.20323951217266830738 0.023790423072610124289 0.23538423006178041397 -0.29164483595263990257 -0.0087963864502670491285;0.064020392131134362668 0.078617558823198083195 -0.050476900289872644878 -0.027813300418299140987 0.018236737350039430861 -0.066151366197867517149 -0.066423253983923846722 -0.042225282769428176821 0.056447026191853398591 -0.029207663108326540474;-0.064697556911260861723 -0.079386399510900429455 0.050656503496581864465 0.028016914363617629463 -0.019456012813300456454 0.06769558373938812379 0.067101490040007608084 0.04289388070142568371 -0.056653254858309236297 0.029002195262234683332;-0.97742543402715176271 -0.77641676217382227243 0.045906572883531511498 0.180219346344075243 0.14455690475840210496 0.16864322983060509031 0.36790802415660828206 0.045462163007188319264 0.042522165462808174385 -0.092642941113109750217;0.091866156012840011202 0.37064477570548326479 -0.20315712735180152526 -0.16740777522429212132 -0.19439756226468224432 -0.1142974957874584585 1.0695537314793699402 -0.34741166760817920878 -0.27313618903626607493 0.68689843711290787809;0.49052390946913265735 0.79057394981914108634 -0.1894190841160523775 -0.12451387825927712205 -0.15269330037769579533 0.079433842068318799567 0.4928274362042648904 0.035301064779111164527 -0.63627553863527808176 0.26266811755638019843;0.021875100849947978071 -0.52977544884703731132 0.31693343856533062741 0.40079625407237606805 -0.55994790853192943914 0.1576545128832511633 -0.68556956120614453987 0.005530591907776334637 0.13480801773625525342 -0.34432552827609858026;0.8364189007997905323 0.36473134750408803262 -0.17859787057263443177 0.30470964271070094531 -0.32581081394595273748 -0.78986078191231190448 0.31531302782816916785 -0.04841175603007299294 -0.39010232599778355 -0.01827651765595914371;0.064709358171873759824 0.079401759828979179279 -0.050658380170554150046 -0.028020270033871794157 0.019486534328525106224 -0.06773072782249919821 -0.067116178744307392057 -0.042912300092175406641 0.056651759401591554599 -0.02899623651307044539;-0.028927442179954510754 0.34353595269591175043 -0.64842008809815754322 1.0908069412661429709 0.27598093865628253729 0.3644945353536790944 -0.34468015275760338634 0.41730691606136571803 -0.045739087080366794269 0.40541876804226401054];

% Layer 2
b2 = 0.022261211581316012187;
LW2_1 = [-0.5846648489779867619 -0.67287403623232222571 -0.71913146318538900825 -0.6328692342724951958 0.70692302511058846548 -1.1957341551285802783 0.73898257806281120175 -0.69100415898607969734 0.72534481580949583535 -0.87065445524845785918 -0.8050292662145206446 -0.6774744770312418618 -0.18461153233222182823 -0.91854398536895098815 -0.19213392417648744726 -0.81468509373871655921 0.65125714139442569817 -0.66602559616311718393 0.85719073883338225972 -1.1092439291307614191 0.70923577171947427278 -0.45306192712108550591 0.6580770447614692209 -0.90970434147106216116 0.68638161988629609045 -0.60824529485394474015 -0.55519331453693077094 -0.68682176172593256691 -0.9559724268400625613 0.57883480378995511018 -0.72793695576671846315 -0.18637390827921054837 0.18881792003128811119 0.71848437333173154062 0.70239199025475074212 0.59047781944957700162 0.78065127940652234706 -0.77901038534834721183 -0.18886992599856267105 0.62865492281398849261];

% Output 1
y1_step1.ymin = -1;
y1_step1.gain = 0.117647058823529;
y1_step1.xoffset = 0;

% ===== SIMULATION ========

% Dimensions
Q = size(x1,1); % samples

% Input 1
x1 = x1';
xp1 = mapminmax_apply(x1,x1_step1);

% Layer 1
a1 = tansig_apply(repmat(b1,1,Q) + IW1_1*xp1);

% Layer 2
a2 = repmat(b2,1,Q) + LW2_1*a1;

% Output 1
y1 = mapminmax_reverse(a2,y1_step1);
y1 = y1';
end

% ===== MODULE FUNCTIONS ========

% Map Minimum and Maximum Input Processing Function
function y = mapminmax_apply(x,settings)
y = bsxfun(@minus,x,settings.xoffset);
y = bsxfun(@times,y,settings.gain);
y = bsxfun(@plus,y,settings.ymin);
end

% Sigmoid Symmetric Transfer Function
function a = tansig_apply(n,~)
a = 2 ./ (1 + exp(-2*n)) - 1;
end

% Map Minimum and Maximum Output Reverse-Processing Function
function x = mapminmax_reverse(y,settings)
x = bsxfun(@minus,y,settings.ymin);
x = bsxfun(@rdivide,x,settings.gain);
x = bsxfun(@plus,x,settings.xoffset);
end
